Language model created by QuickLM on Tue Dec 23 03:32:33 EST 2014
Copyright (c) 1996-2010 Carnegie Mellon University and Alexander I. Rudnicky

The model is in standard ARPA format, designed by Doug Paul while he was at MITRE.

The code that was used to produce this language model is available in Open Source.
Please visit http://www.speech.cs.cmu.edu/tools/ for more information

The (fixed) discount mass is 0.5. The backoffs are computed using the ratio method.
This model based on a corpus of 10 sentences and 19 words

\data\
ngram 1=19
ngram 2=27
ngram 3=19

\1-grams:
-0.9138 </s> -0.3010
-0.9138 <s> -0.2445
-1.9138 ARE -0.2957
-1.9138 FROBO -0.2445
-1.4367 GO -0.2848
-1.9138 HALL -0.2445
-1.9138 HALT -0.2445
-1.9138 IS -0.2957
-1.9138 KITCHEN -0.2445
-1.9138 LIVING -0.2445
-1.9138 NO -0.2445
-1.9138 STOP -0.2445
-1.9138 THE -0.2957
-1.9138 TIME -0.2445
-1.4367 TO -0.2848
-1.9138 WHAT -0.2957
-1.9138 WHO -0.2957
-1.9138 YES -0.2445
-1.9138 YOU -0.2445

\2-grams:
-1.3010 <s> FROBO 0.0000
-0.8239 <s> GO 0.0000
-1.3010 <s> HALT 0.0000
-1.3010 <s> NO 0.0000
-1.3010 <s> STOP 0.0000
-1.3010 <s> WHAT 0.0000
-1.3010 <s> WHO 0.0000
-1.3010 <s> YES 0.0000
-0.3010 ARE YOU 0.0000
-0.3010 FROBO </s> -0.3010
-0.3010 GO TO 0.0000
-0.3010 HALL </s> -0.3010
-0.3010 HALT </s> -0.3010
-0.3010 IS THE 0.0000
-0.3010 KITCHEN </s> -0.3010
-0.3010 LIVING </s> -0.3010
-0.3010 NO </s> -0.3010
-0.3010 STOP </s> -0.3010
-0.3010 THE TIME 0.0000
-0.3010 TIME </s> -0.3010
-0.7782 TO HALL 0.0000
-0.7782 TO KITCHEN 0.0000
-0.7782 TO LIVING 0.0000
-0.3010 WHAT IS 0.0000
-0.3010 WHO ARE 0.0000
-0.3010 YES </s> -0.3010
-0.3010 YOU </s> -0.3010

\3-grams:
-0.3010 <s> FROBO </s>
-0.3010 <s> GO TO
-0.3010 <s> HALT </s>
-0.3010 <s> NO </s>
-0.3010 <s> STOP </s>
-0.3010 <s> WHAT IS
-0.3010 <s> WHO ARE
-0.3010 <s> YES </s>
-0.3010 ARE YOU </s>
-0.7782 GO TO HALL
-0.7782 GO TO KITCHEN
-0.7782 GO TO LIVING
-0.3010 IS THE TIME
-0.3010 THE TIME </s>
-0.3010 TO HALL </s>
-0.3010 TO KITCHEN </s>
-0.3010 TO LIVING </s>
-0.3010 WHAT IS THE
-0.3010 WHO ARE YOU

\end\
